2.457782270045265893e-01
2.683725582682670516e-02
1.280479397395627682e-02
4.224764983752695574e-02
-4.149311949577672465e+00
-7.404361991849722768e-02
-2.087980935540178773e-01
5.217361114651495324e-01
-2.659584418097104219e+00
-2.269844985099627177e-01
1.023505328445105250e-01
6.683268293889352840e-01
-1.128855807550363938e-01
6.804907311620294053e-01
-1.097412055390287744e+00
-7.411372486747106469e-01
8.111709337585283341e-01
-9.468929822618612491e-01
-3.517561310378475303e-01
4.109526863349141634e-01
-2.907729377669594051e+00
-6.821901618121263278e-01
-4.852423283802070331e-01
1.991621799367553902e-01
-1.981501643332865548e-01
-8.769323950833853853e-01
-9.009599618746879646e-01
-1.053846939515605124e-01
-1.097412055390287744e+00
-1.128855807550363938e-01
-8.769323950833853853e-01
-7.411372486747106469e-01
-9.009599618746879646e-01
4.109526863349141634e-01
-9.468929822618612491e-01
-4.852423283802070331e-01
-1.053846939515605124e-01
6.804907311620294053e-01
1.991621799367553902e-01
8.111709337585283341e-01
-2.907729377669594051e+00
-6.821901618121263278e-01
-3.517561310378475303e-01
-1.981501643332865548e-01
7.636381396159255264e-01
5.351011213519767384e-01
-8.642000051128926330e-01
-2.985335585711961670e+00
5.916468761427395862e-01
-1.031592380949867493e+00
-3.719888342660494507e-01
-8.213431489908477046e-01
3.770918085343479519e-03
-2.026727221980560434e-01
4.949897976823933871e-02
4.016853604752302909e-01
-1.832631656072794879e+00
2.475741423785428608e-01
-1.537626674537774241e+00
-2.065897670356040994e+00
-1.164310230056906592e+00
1.116189908996228386e+00
1.430326398480654682e+00
-1.308834295721728047e+00
-1.416139878648507155e-01
-3.377413567702176600e-01
-3.605916328765785411e-02
-7.322271615692824698e-01
3.436857379284266600e-02
-1.100493425526863689e+00
-1.285618804486253541e+00
2.100802897357375854e-01
-1.484297312616202680e+00
-9.573159217840692126e-01
-3.792565604654812850e-01
-3.172152147436220204e+00
-1.812070564819034724e+00
-1.010673226798832758e+00
-1.757311063560063502e+00
4.362557675738355095e-02
-1.189788844730949730e-01
-4.012183899841600399e-01
-1.590803351878838923e-01
-5.715098008637746474e-02
-7.897304508547591251e-01
-2.289511840648383423e+00
-7.623032364922537329e-01
-1.850964898149128068e-01
-1.294304225387115537e+00
-3.501366233419214158e+00
-1.269780699069250618e+00
-2.383699411186427142e+00
-2.109059532228388656e-01
-1.465864200381827409e+00
-1.248053008579848022e+00
-2.048378221304188174e-01
-9.737929255021088304e-01
-1.990343705415334563e+00
-1.019468743305092934e-01
-3.449652367138995146e+00
-2.960510627978944764e-02
-1.265683095446285822e-01
-2.471879235041569256e+00
-7.130686498228424597e-01
-1.523987036599554035e+00
-6.894236629097753033e-01
4.461092179063215757e-01
-2.448057659644689910e+00
-1.497360827535777261e+00
-8.078320043777970083e-01
